2.3414629,-1.3215057,-0.7952739,-1.4393963,-1.0215571,0.64312327,-1.4226637,0.987626,-0.8258099,-2.3216195,-0.274185,-2.3354752,0.48658684,-0.04886517,-0.58929825,0.19711891,-0.34939095,-0.54061395,-0.2870395,1.4411988,0.35273084,-0.19795264,-0.22470546,-0.511057,-1.7888167,-0.65583897,-0.6655325,1.3566831,1.5720062,-0.65220743,0.73485535,-1.6937319,-0.2983989,0.4727586,0.5576431,-0.73780763,-0.5850682,-2.0393252,-0.03420651,-1.0435418,-2.7492414,-1.6403731,-0.9131874,-0.7571006,0.52831316,0.91336113,-0.104884684,-1.615007,-0.24881981,0.49945036,1.2276727,-0.79736596,1.6917586,0.1999752,-1.2517859,-0.7225996,-1.1111069,-1.14723,-1.1255789,-2.1051366,0.006667454,0.32095176,0.67650694,0.13814592,0.486203,-1.2259754,-0.25304085,0.1756746,-0.20573902,-1.2555087,-0.68873155,1.124733,-0.72029823,-0.70190954,-2.5912256,-0.67488307,0.47784168,0.9025872,-1.2799848,0.20562266,-0.7339843,-1.499921,-2.4777415,0.70908606,1.1905774,-0.2870332,0.36838385,-0.28441998,0.20790464,-1.0122774,-0.48796842,0.2594817,-0.9852171,0.1648987,-1.639868,-0.4995502,1.9338387,0.12112996,-0.5703675,-0.64139086
1.5860422,-1.1010109,2.1136425,0.4909376,0.18304871,-1.382224,0.3978459,-0.4725427,1.1804019,-0.3469429,-0.6984738,-0.123486176,0.40613398,-1.2841533,1.4493517,-0.37240776,-1.3272947,1.2338946,-1.8713336,-0.45858702,-1.0774753,0.20827635,0.28086537,-1.4221499,-0.45691463,1.7676642,-1.1615849,-0.045769878,-1.1926085,-0.6226912,-0.23617958,-1.2521157,-2.5611691,0.04239957,-0.86396563,-1.4002948,-0.47295117,-0.13659783,-1.006095,-1.4762334,-0.56496686,0.46993724,-1.2865316,-1.64308,-0.5423288,0.0646105,0.093580455,-0.36127985,1.0009623,-0.16874368,-1.6023238,-1.4688556,-1.1329331,-1.1844715,-0.77605903,-0.47237802,-1.0493628,2.0590515,-0.72673535,-0.73915535,0.42098886,0.12017769,0.2485402,-0.14302666,-0.6125733,-0.22758989,-0.5487365,-0.29436335,-1.2006296,0.09583763,-0.32095605,0.16486077,0.28267524,-0.46810675,1.2254547,-0.27512577,-0.07309167,-0.2005888,-1.0663675,0.09675925,-0.89392364,-1.1029837,-2.6913445,-2.0749247,1.3594162,-0.8380831,-1.3634312,-0.8623228,-0.11060002,-1.0341995,-1.1963786,-0.6469654,-0.80157125,1.1164902,-1.7778473,0.7762113,0.55894345,0.22386278,-0.041429166,1.3409017
1.7377546,-0.32794684,0.81076,0.34798333,-0.24962395,-0.46394017,-0.49051607,0.019601945,-1.6568072,-1.1089215,-0.015888467,0.43600383,-0.6654459,-0.3268067,-1.3846439,0.73324156,-1.230971,1.5010691,0.3528373,-0.9948238,-0.41854462,-1.1239439,-0.70731366,-1.1975299,-0.7674611,-0.7311474,-1.6628306,1.1667098,-0.47690427,0.35799778,0.50620633,-0.5143014,0.06998334,-0.077710986,-1.8040575,-0.93555427,0.18348129,0.7042424,0.62749994,-0.12649463,-1.1624378,0.9733903,-1.666312,-1.2427251,1.0656683,0.886752,-1.2341235,0.9450974,2.4742098,-1.7133054,1.6751194,-0.18476081,-0.9891161,0.31991318,-0.5617669,-0.83586097,-0.6744295,1.1033996,-2.2292118,0.68831074,0.22272648,-1.0784266,-2.333147,-1.2397867,-0.4301375,-0.6167437,0.29157922,-0.22288848,-1.4777734,0.51251054,1.2636707,-0.91367835,1.0124451,-2.2540672,0.28885704,0.45282614,-0.39382803,-0.56623673,-1.1353167,-0.57815856,0.2807861,1.2683768,-2.3388562,-0.9669678,-0.42722505,0.47611603,-0.1776341,-1.7045614,-1.8358395,0.6453971,-0.97013575,-2.5237334,-2.166195,1.3863622,0.14766708,-0.41884428,-0.7873171,-0.6112684,0.7187509,0.4135771
0.8316219,-1.3727976,-1.4064499,0.5434344,-0.6051247,0.084256835,1.1154717,-0.99187696,-2.4878561,-0.12287625,-0.49461767,-0.99770784,0.3948843,-0.32230574,0.19982599,0.516928,-0.47486413,1.6277808,-0.21181464,-0.58713347,-2.0556371,-1.5723302,-1.9090993,-1.9396906,1.9766921,-0.41374445,-0.46786055,-0.6762454,-0.004790578,0.6626517,-1.2102976,-0.90545535,-1.1951281,0.67355126,-1.0794365,0.48187098,-0.9599064,-0.6777559,-2.657439,-0.10957155,-0.9586226,0.061539143,-0.79794323,1.3601563,1.9533345,-0.31540737,-2.4229946,-0.5193077,0.46940148,-1.3147513,-1.2621571,-0.22797395,0.2276553,-0.55441993,-0.70056117,-0.02654086,-0.12806684,0.45054904,-1.5237608,1.6485462,-0.3885091,0.20139574,-0.019811964,-0.8021205,1.5666785,0.4641191,0.4729123,-0.25436932,-2.3913672,-1.2576245,-1.9192559,-1.3863574,-1.2858577,0.29882172,0.6940306,-1.6246088,0.6087819,-0.37242666,0.078605935,-0.19153756,0.1756177,-0.99402124,0.04584507,0.03050962,-0.533371,-1.2106384,-1.59578,0.30188164,-0.48266193,0.35094464,-1.1670152,-0.46829545,-1.003079,-0.13094832,0.3091405,0.89173704,-0.91154313,-0.039959554,-0.9152414,-2.3294768
1.166586,-1.4671837,-0.26328465,3.0516474,0.8748337,-1.4936541,-0.70465964,-0.100254826,-0.19499223,0.25336042,0.24872772,1.1507038,-1.2541884,-0.36320785,-0.31828478,-0.47037512,-2.5926695,-0.5306088,0.6911473,-1.3601773,0.7903495,-1.4177729,-1.4106922,-0.087291285,-1.6455905,0.81504947,-0.982336,-0.86467093,-0.031644415,-1.8738018,-0.31197947,-1.3018826,-0.12714306,-1.5784736,-2.9652188,-0.9148902,-1.870773,-0.99017596,1.670415,-1.0295349,-0.5036734,1.0866938,-0.6128045,0.84018713,-0.19975285,-0.305273,-1.013964,0.4848892,-1.3197592,0.17966627,1.6795434,0.2360338,-0.6725019,0.52438766,-0.39008188,0.4830769,1.0317497,-1.360301,2.1363022,0.35257503,0.11262942,-0.5243325,0.07705414,-1.9962339,0.45235655,-0.5994781,-0.31730598,0.6242519,-1.0420989,-0.85063076,1.8198074,0.81916577,-1.1108682,-0.26148593,0.044153817,-1.9559069,0.28963524,-2.2235532,-1.1830266,0.96854705,-1.1587422,0.8725185,-0.32268557,0.7431778,-0.3151051,0.56781554,-0.61937106,-1.180315,0.734466,-0.48244777,-0.12322121,-0.15505116,0.32170042,0.082731485,0.26467177,-1.3697474,-1.5416523,-0.5914774,-1.5242884,0.08064969
1.2569486,-2.4602668,0.29480878,-0.9333022,1.165534,-0.0027856305,-1.1737821,0.43926588,0.20581333,-0.5112739,0.54914284,0.24959944,0.23369792,-1.582835,-0.2271336,0.09832223,-0.11663288,-0.15372372,-0.011920024,1.5704854,-0.27178895,-1.855924,-0.57548046,-2.0333452,-1.5208912,-0.35597318,-0.15273114,-1.7316166,-0.7661053,-1.1966285,-0.58181685,-1.2654032,-0.90219563,-0.18289493,0.46336356,-1.3634919,-0.68090606,0.78327376,-0.03280538,-1.025899,1.0170678,-1.3378493,-0.8468744,0.9492183,-0.21641695,-0.15491924,-1.1219676,0.33016026,-1.7879262,0.0375157,0.27739877,0.6448898,-0.9002514,0.029206946,0.14956006,0.08171775,-0.3439747,-1.129121,-0.12046872,-0.79367775,0.52602786,-0.9595695,-0.7017147,-0.0106247775,-1.4368973,-1.6858574,-0.06674978,1.3581942,-1.7148542,-1.8588467,-0.6255678,0.3678347,0.68116343,0.45408458,3.2020662,-1.2679145,-0.16308247,-1.1254623,-0.2580123,-2.2906678,0.0564667,-0.17338471,-2.3024542,1.1174326,-0.729387,-0.86998093,0.47546354,0.32022804,0.66431254,0.57805663,0.6124173,-0.14507398,1.2859826,-1.2991859,-1.291556,-0.8850858,-0.5149339,-1.684663,-0.17201985,-0.19041124
-1.014604,0.9042014,-0.6892084,0.656257,-0.92227864,-0.6366189,0.15783499,0.86355805,-0.29662338,-1.4687893,0.67741764,-2.4659128,0.015135717,0.06379978,-1.651045,-1.7106248,-0.84758097,1.1370028,-0.6653173,-1.6646231,-0.13334718,0.69627273,-0.32284668,-0.6445042,0.68242073,-1.7395589,-1.6408945,0.17961973,-1.163077,-0.5679492,-0.16532713,-1.3705715,-0.7157218,-1.3468014,-0.5725007,-0.79812974,-1.2007561,-0.042192027,-1.0155478,-0.6746178,-1.7691889,0.819489,1.5935037,-1.9036136,-1.392915,-0.24402869,0.18321867,-0.40227813,0.04122016,-0.6423762,-1.4982878,-0.70434165,-0.14237338,-1.2313108,1.604018,-1.0500646,0.58266574,0.4071977,-1.1039755,-0.5888602,-1.2391533,-0.14747897,-1.2318654,0.5650761,-1.5411276,-2.1892095,0.25079304,0.26421556,-0.11447711,-0.9250582,-0.9432671,-0.6306887,2.6254797,-1.3291786,-0.2954936,0.040969145,-0.47012419,-0.24088669,0.19559641,-0.139272,0.11440418,0.014558515,-0.06824782,-0.2987619,-0.34950474,-1.816106,-0.58209217,-0.78665876,-0.9066283,1.02762,-2.425311,1.0820045,0.98664105,-1.132146,-0.9567554,0.98122156,0.488465,-0.27301943,-0.2137507,-1.7504059
0.6086721,-0.35943037,0.85630333,0.23250611,-3.247403,0.7106078,-0.79857713,-1.4461812,-0.34930965,0.41564688,0.24371892,-0.14956446,0.12589996,-1.0337409,-1.3712528,-1.1237245,-0.51686645,0.14630848,-0.73517466,0.8588084,-0.16230983,0.085921556,0.012165861,0.7129183,-0.07194576,-0.49418616,-0.14961481,-0.47420067,-1.3061422,1.6641909,-1.2128956,-0.31028536,-1.1986974,0.16805653,-0.47173497,0.16676879,1.147516,-0.83301,0.6023383,1.8512594,0.44073266,-0.95598954,0.12697108,0.04210089,0.17578048,0.40758047,-0.973684,-0.4369378,0.59739083,0.3222364,-0.88189274,1.0613447,-1.6462277,-0.64958704,-0.8356948,0.6501122,-0.32148287,-0.08003676,1.5557908,-0.34600934,0.40195778,1.1681992,-0.33372524,2.3449001,1.2429452,0.29849672,0.40050337,1.0471948,0.419587,1.033958,0.9809697,-1.6018134,0.60444945,0.1968144,-0.0033423344,0.27619508,-0.67452544,-2.1797328,-0.5903825,0.9308648,2.199145,0.32845104,2.288676,0.815004,-0.49600774,1.7257097,-0.58422285,-1.1739647,0.23382275,-0.71339184,0.03610791,-0.949464,-0.5786342,-1.9179299,1.0035825,1.614844,0.47986522,0.2502034,0.7438226,-0.281281
1.5586834,-0.12998986,-0.6824449,0.30599385,-1.779146,-0.6891802,0.7944406,-0.38305947,-1.3497422,-0.5272623,-0.13687049,-0.60977244,-2.4278853,-0.591419,0.9892239,0.38432723,-0.50884455,-0.56634074,1.0489221,0.24347928,-1.3185173,-0.20042554,-0.90444714,1.0835891,-0.28671238,-2.2014775,0.9227419,-0.51864296,0.06582499,-1.7750093,0.47686338,0.030402683,0.47927344,-1.0058948,0.813908,0.5026475,0.47911584,1.4578593,0.9103136,-0.2890998,-0.5089973,0.23206271,0.3361429,-0.21408296,-0.8713263,-1.0441365,-0.31412756,-0.18253379,-2.1967726,-0.1392036,-1.3036145,-1.5822176,0.18695253,-1.7887412,0.9050513,1.4435416,1.5911938,-1.0201727,-0.22624306,-1.7687373,-0.59907585,-0.49520716,0.5612439,-2.3631616,-0.07188294,0.4780308,-2.143205,-1.2502178,0.4490857,-0.15722224,-0.9119231,0.8127588,-0.44304723,-1.2204161,0.050961353,-0.76499707,0.3291339,1.6100254,-0.077615544,-0.8993826,-0.09743644,-0.23674364,-0.50934535,1.1368524,0.6840567,-1.249868,-1.0028427,0.6213614,-2.678096,0.967455,-0.56868297,-0.053238273,1.4540993,-1.3475423,-0.49187806,0.66739607,-2.5857592,-0.50152284,-0.5343047,0.6540828
1.7593099,-2.1277425,-3.3089817,-0.8955119,0.44794583,-0.26953897,0.12906891,-0.23967215,-3.0405533,0.38862807,-1.8536639,-1.7549143,-1.9403945,1.0369768,-1.2189444,-1.4234849,-0.18910018,1.6600337,-0.53840864,-0.38860413,0.3825744,-1.8768241,-1.4975653,-1.1968855,0.97939634,0.4474819,-0.27604175,1.2772886,-0.071741894,-1.107681,-1.1860832,0.9603592,0.44399184,0.3887767,-0.056969985,-1.214439,-0.14485155,0.2221358,-1.8807677,1.2529975,-1.32585,0.04376988,-0.14319707,-0.046549626,-0.12003334,-0.9604424,-0.27248368,-0.35561305,1.1052815,-0.69058657,-2.1394844,1.2585776,-2.0583024,0.28932896,0.51242626,0.8708878,0.16035534,-0.7273395,0.5264353,-0.9709311,0.99106514,-1.1619914,-0.7543493,-1.6272316,-1.3929029,0.7749891,0.3276044,0.24834569,-1.2275318,-0.42202264,-1.5362684,-0.537242,-1.8067006,-0.40669593,-0.10969368,0.14966191,-1.1793708,0.24875517,0.40767553,0.24681573,0.31747654,0.21747488,-1.2982454,-0.16745399,0.3728256,-0.8128904,-1.9023602,-0.53045434,-0.95249605,0.6008207,-0.19784683,0.19329953,-1.5668379,-0.22187138,-0.5526503,-0.7954731,-0.45400745,-1.1322911,-1.1966819,0.038804717
2.5946238,0.89007425,1.6456869,1.3992908,-0.44444966,-0.71319664,-2.7345386,0.15722145,0.61814976,-0.19891334,-0.21542878,1.0243413,1.2935435,-0.06674993,-0.4356235,-0.5871822,0.5386081,-0.94847095,1.3346505,0.9249968,-0.101964965,-0.99795526,-2.224901,-0.3876912,-1.0711483,1.0328385,1.3154855,-0.8497687,-0.682914,-2.048972,-0.1560548,0.48891848,-1.6588081,0.41066056,-1.6145595,0.35906014,0.6362789,0.009008246,-1.3041475,-0.7538591,-0.42545676,-1.2751299,-0.5665774,-0.42457104,1.0687999,-0.3276968,-1.4114017,-0.59950554,2.5049953,-0.9592874,-2.2335196,-0.64636546,-0.024436887,0.06121345,0.24844006,-0.35991797,0.3945005,-1.7860488,-0.53519833,0.22143234,-0.77455884,-1.0742042,1.8319247,0.19464837,0.005011795,-0.27428108,0.50871867,-0.65386206,-0.7544281,0.6637682,0.99703467,1.6601712,0.18394956,1.7226291,0.10081281,-0.8215646,-1.3200222,-0.38505206,0.26065156,-2.6215038,1.0670782,-0.5790418,0.35674363,0.27139625,-0.8614444,-1.205201,-1.2901394,0.5689584,0.9322225,0.7752631,0.40635335,-0.33351573,-0.67752826,-1.0442157,-0.43428835,-1.0328275,-0.24037199,-0.50231224,-2.3785882,-0.09540155
0.736838,0.5189575,0.21677051,-0.454571,-1.7175719,-1.0959178,-0.8968597,-0.957352,0.50434923,-0.006741978,-0.6661127,1.8494693,-1.0151048,-0.9640605,-1.2674936,0.90899736,0.7795689,-1.7193501,-1.0297755,1.1670808,-0.56621385,-0.19662414,-1.4363514,-0.37614098,-1.2196218,-0.590327,-0.76703066,-1.1619483,-0.85257846,0.8291016,0.53991836,-2.0182104,-0.5775945,1.0939277,-0.921143,-1.4393655,1.0559304,0.57690156,0.13618134,0.36339328,-1.084583,-0.7174428,-1.264325,-0.26358816,-1.0996026,0.061887197,1.4675511,0.31957558,-1.0273061,-0.9974814,0.2598134,-1.0485672,-0.88063496,0.67018926,0.6009534,0.028902661,-0.4476806,-0.9952611,0.8706305,-0.12358075,0.15516804,1.0447162,-0.51673466,1.6828445,-2.3421614,0.8188332,-1.9169469,0.7788335,-0.117373794,0.49733227,0.20163232,-1.630875,-0.020789986,-0.71033466,0.31574625,0.3740734,-1.525361,-1.1246235,0.86824024,-2.301204,-3.3387039,0.80340195,-0.34970927,-0.7381092,0.7971385,-1.9373798,-0.37712282,0.25203505,-1.0382115,1.4031299,-0.43140087,-0.06702958,-1.4305232,-0.8739435,0.26138213,-0.50996965,0.081454426,-1.641749,-0.7179521,0.8230267
-0.39761707,0.47293353,0.7956057,-1.4811134,-1.0045518,-0.6214658,-0.019322636,-1.0859832,-2.454239,-2.3448427,-0.3315965,0.32936743,0.5925335,0.063314945,-0.82578933,-0.0128700435,0.64919376,-0.37526846,-0.6534362,0.82154214,-0.11598056,-0.36109498,1.3899987,0.1596734,0.26875854,0.33274865,-0.89986265,-1.2033441,-0.44019327,-0.72756314,0.68071586,-0.0997534,-0.69118506,-0.4899547,-1.5783044,0.4997726,-0.47528103,-1.5737909,0.66695577,1.9974949,-1.034582,-0.8672149,-0.94872254,-0.9336639,-0.7801555,-1.6212858,0.045704506,0.60758483,-0.42602086,-0.7224468,-0.9826416,-1.3764492,-2.2990592,1.5827663,-1.1284598,-0.093422875,0.941854,-0.19091675,-0.69987917,-0.22601758,1.4099735,1.7250669,0.8822203,-1.0861928,-0.05384738,-0.37106267,-0.12958977,0.445998,0.1370995,-0.22819376,-2.685762,0.8223628,-1.2264962,0.58780664,0.46866447,-1.6963896,-0.7606888,1.1618297,-0.90913296,0.05319506,-1.4045866,1.2577416,1.4171745,0.36056682,0.04246564,-0.6221528,1.0294787,-2.4470832,0.6133247,0.050787278,0.65091956,-1.9943228,-0.21604523,-1.5569222,-0.99856293,-1.9743274,-1.4887712,0.4705925,0.85026973,-0.8529985
-1.0804065,-0.14251511,-1.6689417,-0.23913988,-0.17450644,-0.67767805,-0.2162627,1.2413174,-0.09045731,0.20469087,-0.5094584,1.1650563,0.37154678,0.036661096,-2.4510875,-1.2538567,1.5075197,-0.2576315,-0.33136293,-0.3414757,-0.80790734,0.5062067,-0.32006943,0.6164537,-0.9041935,-0.75751483,0.11319032,-0.26559743,-0.89900535,-0.86550766,1.8405123,0.61030704,-0.21538338,-1.1832912,0.820323,0.21745326,-0.8982384,-1.2785208,-0.7450155,-0.10999379,-0.8600366,0.69998777,-0.30927986,7.215375e-05,-0.6655239,-0.44294083,2.2159286,-1.3892801,0.36274356,-0.04562619,-0.85827225,0.19751799,-0.54405695,1.998451,-0.5860898,-0.5049902,-0.3840446,-0.09901063,-1.0657108,0.25824764,0.4604527,0.4477805,-3.184372,-0.5048903,-0.30857933,-1.0396001,-1.2976028,0.5942168,-1.5766704,0.4680928,0.1505039,-0.867302,0.9428313,0.8975825,-1.0978075,-1.9643755,-0.5609188,0.5472358,-0.55745053,0.1376906,-0.60158,1.5757587,1.8959154,0.22745088,-1.194555,-0.5213093,-2.5082507,-0.2875364,0.2756196,-0.29962867,0.08724694,-1.7357194,1.3598154,0.28438807,0.12822281,0.66960377,-1.190839,-1.9142807,-0.22561553,-0.5933293
0.58118343,-2.5212333,-0.7889301,-1.2720655,1.3839762,-0.68847805,0.60934806,-1.0557187,0.47472736,-0.9421373,0.18540494,-1.5668108,-0.66812974,-1.8466222,0.68081355,-2.499377,-0.81059366,-0.65318614,-0.6786417,-1.9008625,-0.26006275,-1.0319996,-1.5635937,-1.9413607,-1.4119629,-1.287305,-2.067106,-0.5046753,-0.8705876,-1.3295491,-0.0024263468,-1.9656464,0.29726902,-0.31076577,0.28336185,-1.2296736,0.41950366,-1.5170795,-0.37053424,-0.9735696,0.5527909,0.38887787,0.32420468,-0.16066732,-1.6434641,-1.8500406,-1.201636,-2.420103,-0.31010386,-1.6772863,-0.0016859267,2.0741923,-2.1457531,1.0039338,1.7977986,-2.1459444,0.87313426,-1.556271,-2.0338848,-0.25397176,-2.0123994,-1.0480381,1.9464642,0.064378925,-0.59875524,-1.5696405,0.19909558,2.1827745,-0.882765,-1.5239596,0.33786413,-0.7335424,-1.1529064,-0.47600737,-0.41493666,-0.27577746,0.24339612,-1.695325,-0.5716497,-1.9953516,-2.1237373,1.0927562,0.23370853,-0.7570212,-0.4835914,1.017435,-1.5129428,0.11947006,0.41718265,0.41143858,-0.47135654,-1.3790538,-1.258552,-0.02571108,0.18577012,-0.7243994,-1.0204645,-0.5040819,-0.5865055,-0.3142247
-1.1905636,-1.5689061,1.3404671,-1.5479708,-1.2981601,-0.572948,0.74220604,0.1808949,-0.056149576,0.23111835,0.024221737,-1.3637171,-0.39773875,-0.1345103,0.8008293,0.50694054,-1.6701803,-0.27711385,0.32043165,-0.7979767,0.30136085,-0.4444319,-0.8468387,-1.2162538,-1.223187,-0.30945203,-1.0665535,0.82708514,-0.50928843,-0.09477475,-1.0759144,-0.63551813,0.5510345,-1.5337714,-1.5620533,0.08774314,-0.60613114,-0.82206476,0.0067027025,-0.27418703,2.2951589,-1.1270821,-0.021081656,-1.1998135,-0.81761783,-0.0823485,-1.1411552,-1.1677666,1.1406943,0.72767097,0.9078881,-1.5199138,-1.357265,-0.76665235,2.221152,-1.5840656,-2.6342745,-1.0467441,-0.18977477,0.3362577,-0.13493834,-0.452487,0.8130772,0.08154356,-0.7682208,1.6065849,-1.8541518,-0.9746438,-1.5000919,1.7439784,0.29369235,-1.2622514,0.2743093,-0.4679486,-0.29301697,-1.1382068,-0.7959424,0.47429603,-0.051621597,-0.8576943,-0.12333131,-0.060240444,-1.0018644,0.32433796,1.4327754,0.23509564,-1.0069935,-0.91342115,0.26350942,0.39495602,-0.8757402,-0.7917842,-0.42776337,0.89302796,0.1017066,0.13450238,1.4679668,-0.662555,-0.4295489,-2.638326
-1.0146611,-0.14468634,0.014065752,-0.8522487,-1.4754936,0.13581315,-0.18818258,-0.9710947,0.5110468,0.045057826,-0.19608809,-0.32369652,-0.43135986,0.0873088,-0.3133183,0.07139594,0.81379217,-0.8556103,-0.48118258,-0.9475195,0.4280435,-0.26390415,0.5311076,-1.7407718,-0.060758613,-2.2784464,0.15436253,-0.7646747,0.1677654,0.198512,-0.45629698,-0.88179475,-1.3927332,0.66783464,1.6321889,-1.5585018,-1.8993262,-0.6727793,-2.0959806,-0.07369107,-0.8565918,-0.8336231,-1.8309929,1.9590425,-0.84419125,-1.5503902,-1.6207969,-2.4875462,0.41622195,-2.4040158,-1.2547703,-1.267653,-1.3920921,-0.5735496,1.6873468,-0.87254924,-0.58261544,1.7508806,-1.3777424,-0.28913003,-0.9999825,-0.44892347,-1.2591729,-0.26719138,0.551807,-1.1642087,-1.5365884,0.8656099,0.41726628,-0.55779487,0.5558503,1.1207638,-0.84608805,-2.3911026,0.8539755,-1.078744,-0.3274656,0.52367914,-1.7047601,-1.1739299,-0.25760257,0.7122568,-1.5819808,-1.4330873,-0.2582801,0.08609754,0.6972397,-0.06996091,0.01425338,0.04568938,-3.4942226,-1.5717505,-2.0177717,0.56697613,0.5270179,-1.5044231,-0.5695271,0.682019,0.5849356,-0.017747598
0.9728325,0.99490285,0.2244576,-0.6119092,-1.0648435,0.47842798,-0.5565149,0.073188834,0.4174714,-0.8214369,-0.46531615,0.44632173,-0.924948,-0.94123226,-0.52460796,0.00012751855,-2.1648018,-1.873085,0.20802146,-1.0073467,1.2056738,-0.4696772,-2.217339,-0.5216797,-1.0757691,1.01859,-2.126034,0.8148804,-2.03665,1.0297935,0.044538043,0.79980963,-1.2587659,-0.36351418,0.10817923,1.8142618,0.42612892,-0.36987606,0.34062132,0.0026869606,0.54335696,-0.19645993,-0.46513572,-0.2796026,0.57573354,1.0157655,0.49770585,0.1940296,0.57007635,0.82722425,1.1028917,0.36728302,-1.4319582,0.12212929,0.020103404,-0.81335175,-0.20224017,1.0289309,0.85422075,-1.2795662,0.37948582,0.940914,-1.0499735,-1.1267996,0.61275256,-0.96811116,-1.3484781,-0.051241405,-1.4915941,-1.3700615,-0.15529355,-0.41762695,-0.6312762,0.24358405,0.23113061,-0.32357618,-0.21566768,0.93738234,0.82711935,0.0528474,-1.1437123,-0.3444828,0.6144388,0.6767513,-1.2156725,-1.7894348,-0.83172333,-1.3303491,-0.37123463,-1.5024508,0.31842467,-0.15634957,-0.33760867,-0.5029838,0.24449548,0.49238768,-0.8892101,-1.4934533,-0.8477374,-0.30152085
0.30171248,-0.440045,-1.3096237,-1.6147593,0.48344243,-1.8540959,-0.40831864,-0.7763654,-0.23927772,-0.35986328,0.47307426,-1.1771863,-1.7063116,-1.8921194,-0.5771819,-1.8223948,1.4019965,-1.6884902,0.5656756,0.48696515,-0.8266869,-0.3702984,0.6943446,-0.16533636,-0.13463587,1.2792995,2.1942031,0.5036665,0.36499164,-0.48562217,-0.39290836,-1.4022045,-0.3581894,-0.7304834,-0.8842447,0.02758766,-2.5486975,0.32116824,0.7655575,0.4864245,0.80655235,-0.1588666,0.18165398,0.5505903,0.43883395,0.76494414,1.162731,-1.7394298,-1.0736996,0.31996897,-1.8019645,0.6490077,-1.4803286,-0.51817495,-0.98926514,-0.45515037,-2.0123417,0.6365498,2.913969,0.03236568,-0.42368022,-0.3203407,1.1613581,-0.7328239,1.0540966,-1.3690455,0.022354264,0.2446569,-1.0167874,-2.3484163,-1.0756689,-0.569471,0.79719293,1.5052305,0.2615639,0.13480212,-0.9729122,-1.564286,-1.2427585,0.35775,-0.97314894,-0.5351073,0.48918927,-0.6967835,-1.6218947,-1.4956604,0.23817158,-0.058302693,-1.0557272,0.19960383,1.7385484,1.38686,-0.7740087,0.59673136,-0.8590728,-1.9901189,0.20298384,-0.6269006,-0.866657,-1.7713829
0.7834497,-0.913613,0.48305565,0.57593966,1.8754058,-0.6738322,-0.61753225,-2.0590386,-1.1961856,-1.191704,1.0471348,-2.3390665,0.02748001,0.99745965,-1.2818525,0.08739669,0.107341334,1.53363,-1.4461411,-0.43458852,0.7075634,-1.9655915,-0.30288965,0.1333854,-0.4154717,-0.50513935,-1.0396558,-1.2438438,-0.5060462,-0.37597278,-1.1764982,-0.042761937,-0.7565533,0.25767782,0.55412084,1.1571726,0.16219987,-0.11857689,-1.8410586,1.1477658,-1.4945062,-0.14508902,-0.09744096,-3.0444202,-0.2754284,-0.7851843,1.0679084,-1.0016538,-1.3909541,-0.10870167,-1.0472068,-0.43597433,-0.93050015,0.25608906,-0.17961636,-1.3458797,0.4818136,-2.2335508,0.35476595,-0.93623734,-0.08923367,0.020640884,-0.6592989,1.3743058,-2.6482608,-1.7620806,0.018915547,-1.4141614,-2.0360982,-1.0242378,-1.4647709,-0.21891871,-0.09917709,-1.3999796,-2.1469991,-0.40127164,-1.0338867,-1.517272,-1.5176038,0.5634509,-1.9252808,0.40527987,0.62484497,-1.207586,-1.1776897,-1.0517148,-1.1369042,0.14634472,-0.8170692,-1.8598559,-0.0026238668,-0.16140075,-0.4929645,-0.6404031,-1.7558465,0.4005895,1.1191647,0.109698676,0.34937513,-0.91797113
0.9283687,0.92716306,-0.63023496,-0.9256661,-1.1707077,-0.77016073,-1.2723796,-0.4188619,0.61675066,1.6883638,-1.9825585,-1.0746659,-0.7807806,-0.64578927,-1.5717832,-0.58240515,-1.883095,0.13455105,-0.118109316,-0.2929151,0.4107765,0.34311202,0.41115013,-0.6557982,1.6485062,-0.8684619,1.358356,-1.04366,-1.2316957,2.618638,0.0007760916,0.81550103,-0.9014713,-0.4289231,0.51348096,0.48103777,-0.29939604,0.23630811,-0.86884207,0.40989572,0.020683467,1.1982685,-1.1395984,-0.20734356,-1.0683955,-0.54563266,-1.1803005,-1.2040721,0.63669956,-0.77655923,-1.7198017,-1.0460439,0.6318496,0.41699016,-0.08837644,0.47796372,-0.62739676,-0.11787988,-1.8291488,-0.058300465,-0.938374,-0.6955879,-0.022057656,-0.45062923,-1.8008395,-0.17646691,1.1017504,1.7161448,-0.9497956,-1.4689934,0.19587657,0.64694756,-0.31543103,-0.8407241,-0.32822344,-0.043199535,0.06757936,-1.2678277,-1.6371633,-0.09129203,-2.6480238,-1.6350656,0.54521483,1.3422334,-0.2842756,-2.1003237,-1.8768836,0.8657338,-0.6336057,-0.24731953,0.9373347,-0.090520315,-0.70688426,-0.022284962,-0.10170373,-1.1588513,-2.2433994,-0.5567772,1.0835893,0.9424044
2.5454464,0.45405346,-0.22405708,0.88685393,0.12687707,1.318416,0.85689497,-1.7068768,0.30809936,0.59363204,-0.7971643,-1.4458854,-1.702513,0.5837007,0.76461494,0.35180235,0.33134952,1.7241108,-0.4621405,-0.24515666,0.38286543,0.09940189,-0.034352098,1.0690695,0.16453354,-1.8762045,-0.7934709,-0.5884185,0.60847104,-0.49685165,-1.0412728,-1.3889148,0.56607264,-0.50563914,1.0034128,-0.18967548,-0.6863325,1.0192697,-0.058732867,-0.3889755,-0.720084,-0.06269194,0.5398469,-1.1948187,-0.2981801,-0.6744726,-1.0826875,-0.111789696,-1.2971627,-1.4188882,-0.92185545,-0.29249197,-0.1563831,1.3046383,-0.929414,-0.61280435,-1.8244463,0.79132307,0.17903402,0.8558233,-1.4351163,-0.1633992,-0.09365723,-1.2204769,0.9403347,-0.9048873,-1.1045697,0.05818197,0.24364737,0.005301116,0.2417378,-0.21103154,-1.9275684,-0.7355443,0.15658,0.24071431,0.45571968,-0.87652737,-1.208224,-0.31903908,-1.9931449,-1.3132828,-0.028700242,-0.23864529,-0.04191512,-0.8110297,0.7088566,-1.3438755,-0.22293338,0.60922027,0.57145774,0.5307961,0.03919921,-0.6210009,-0.6989586,-1.4528692,0.26558602,-0.5033977,-2.3321028,0.7347568
-0.6521504,-0.07524526,-1.9937929,0.7588666,-0.16355814,-1.2395402,-2.5233037,-0.5854575,-1.4318236,-0.47542107,-0.22560197,-0.64370656,0.029567156,-2.2636611,0.8759406,-0.6261576,0.8082741,-0.9369474,-1.8253839,-1.8170612,0.099104255,0.5152362,1.9250523,-1.3521023,-1.5056021,-0.4701859,-0.65283674,-0.8844844,0.49312702,-0.6042145,0.12883449,-0.027648153,-1.2901093,0.5954875,-0.9579688,-1.0460091,-0.34172347,-0.3109817,-1.8917024,0.56986684,-0.11372292,-0.71897227,0.21533944,0.019691411,-0.018800136,-1.511563,-0.018181019,0.3795557,-0.09521349,-0.6576175,-1.0683098,-0.28892574,-0.4605161,-0.7403794,-0.49833593,-1.4759271,-0.80003536,-0.2779828,-0.02791418,0.045926746,-0.92674005,1.4285219,0.8002267,0.44784784,-0.77086043,0.22034132,0.42599902,0.7008389,-0.55799794,-1.4067147,0.9428312,-1.4450605,-0.70664114,-1.8435091,0.06596359,-0.79654104,-0.55524325,1.281939,-0.870699,-0.013048204,-0.038977943,1.0022151,-0.103958204,0.40111986,-0.85842675,1.0920553,-0.0802336,-1.3038614,-1.6430658,-1.1250931,-1.356478,-1.9987195,-1.4123546,-1.2204802,0.056973293,0.9856198,-0.6545671,-0.62353325,0.5717968,-1.3020349
0.7696909,0.93747216,1.1497924,-0.79960084,-0.6151729,0.5639723,-0.7997024,0.790531,-0.9750605,0.30227068,-1.9307432,0.089065745,-0.57066417,-1.313962,-0.30659938,0.03139884,-0.11381802,0.22398902,-0.2302753,-0.23108657,-0.6138218,0.50274086,-0.111513145,0.36314905,-0.6884705,-0.962758,-0.4854457,-1.3449808,-0.4737449,-2.1273253,1.0178388,-0.8494791,0.95923084,1.4342451,-0.013302656,-2.6233647,2.0583153,-0.7855899,-0.08649746,-0.66277874,0.93390113,-1.5428072,-0.5799146,0.6822106,-0.9404162,0.2687577,0.1973414,0.6406474,-1.4829191,-0.8056877,0.14148477,-0.49382243,-0.60292786,-1.506296,-0.36730647,-1.8918173,-0.83845484,-0.39416352,-0.67137724,0.17157815,-0.561521,-2.0907218,-0.24596374,-0.009872982,1.352224,-1.2192758,-0.742948,-1.9422237,-1.065309,-0.19310115,0.42914766,-1.4531282,-0.36284852,-0.44921374,0.3810683,0.5637184,-0.05011577,-0.6865892,-0.77853054,0.687759,-2.2748542,0.8310889,-0.78450805,-1.143817,-0.18288827,-1.8905622,-0.7653437,-1.2682774,-1.187219,-2.7335985,-0.46632043,-0.742717,1.4806609,0.31097808,0.71277285,-0.8988778,-0.018341452,-2.1595109,-0.31420904,-2.0514166
2.2044291,-0.36094436,-1.3037479,0.26889777,-0.6193075,-0.4586945,-0.66119146,-2.15002,-2.5475793,-0.30752242,0.37344044,0.8771777,-2.0062273,-1.3895062,1.5613518,0.442876,-0.6722296,-0.7793975,-0.24634689,-0.85207945,0.9419801,-0.6221447,0.79005,-0.5463656,-1.1893765,0.3752397,-0.10619714,-0.34652227,-0.6607801,-1.2208339,1.8530608,-0.3344843,1.8210403,-0.96634424,-1.055728,0.5438641,2.3989077,-1.2265023,0.2676146,-1.316339,-1.9689006,0.8471465,-0.3402923,0.91179955,-2.289791,-1.365837,-1.6336892,0.84968096,0.15842992,0.7085475,-2.0626783,-0.10290544,-0.90509737,-0.5264542,0.27599543,1.2048206,-0.83410525,-0.7793706,0.3701764,-2.1732516,-1.3028322,-1.252223,-0.91204476,0.14139208,1.1651144,-1.8262016,-0.08653661,0.8801285,-0.5807361,-1.5214727,2.0218823,-0.14595433,-1.0521619,-1.3284589,0.22565533,2.1565251,0.068159685,0.64949346,-0.6333085,-0.5236123,-0.9240518,-0.904341,-0.14686821,-0.1748735,-0.29628423,-0.11801796,1.5427488,0.20709431,0.05814459,0.48015636,0.63160044,-1.4202533,-0.3933176,-0.33460265,0.43919486,-0.22702147,-0.2836775,1.753515,-2.5091088,0.03377097
-0.109963134,0.516679,0.8871435,-0.8247261,0.44809932,-1.4244324,-0.19938506,-0.86128074,-0.33047748,-0.2711473,-2.146642,-0.20726818,-1.5510023,-1.4696666,-0.31697378,-1.4543443,-0.81872267,-0.99011993,-0.21658526,-0.7420033,0.325404,-1.3015327,-0.89123976,-0.8992336,0.25828806,-1.8382038,-0.37217215,-0.9373333,1.1452056,-2.3467789,-0.588252,-0.8764496,1.3110598,-0.86788696,-0.9654649,-0.85569054,-2.658964,0.6534278,-0.6794974,-1.221534,0.9948254,-1.3284191,1.3233945,0.5588953,1.4093655,-0.5616522,-0.40931287,-0.8848836,-0.2115351,-0.048835285,-0.801765,-0.9700358,0.36513686,-0.27038255,0.09247383,-0.37084204,-1.5172688,-2.1808424,-0.057368647,-0.1992124,-1.1517284,-0.7584434,-0.08663146,0.19964445,-1.2239096,-1.8514724,-0.9099907,0.44703105,0.29397643,1.0494447,-1.2523764,0.027694251,0.59172976,0.6542862,-1.5941563,-0.70240885,0.46876144,-1.8428235,-0.98084974,-0.062241394,-0.8375941,1.4416269,0.7689393,-0.99444973,-0.25093532,0.14341116,0.071376786,0.06776518,-1.9263917,0.0077407192,-0.07923992,-0.0469511,1.0320957,0.11991434,-0.25615457,-1.0037217,-2.1011763,0.2643802,0.39317673,-1.9186829
0.6847077,-0.14095806,-2.8362164,0.3474168,-1.1630738,-1.1036779,-0.50121737,-0.8193834,-1.2111801,-0.20507538,0.22226167,0.26365513,-2.7391415,-0.21638875,-1.250332,0.7831651,-1.1884913,-2.2142253,-0.987542,-0.33712423,-1.1783434,-1.2138976,0.028286532,0.089323625,-0.86678815,-1.0376589,-0.67685115,-1.0613261,1.995559,0.59549606,0.09809766,-1.2115453,-0.18405735,-0.068776086,-1.4002607,0.46786368,0.32602268,0.9307655,0.026970543,1.2964473,0.4293431,-0.7863882,0.7182506,0.13211879,-1.4442222,-1.1374314,0.018438473,0.324393,-1.5010785,-0.2900229,0.824956,-0.6718795,1.1035186,-0.33400533,-1.4126241,-0.93656296,-1.0276201,0.07525396,0.13293481,-1.4193882,-0.5827053,-0.9726322,-1.0806736,1.081872,-1.4693371,0.9534167,0.3230362,-1.6552395,-0.712162,-0.54241157,0.027332855,0.6590257,-0.39936337,-0.050343428,-0.67581415,0.52085507,-0.060568858,-1.5130905,-1.9623576,-0.7310674,-0.7092052,-1.281965,-0.33544824,-0.62494373,-1.2875103,0.064259484,1.605512,-1.9545063,0.42950967,0.44502565,0.6396367,-1.1406102,-0.24200623,-2.5858617,0.96464914,0.38508028,0.9994572,-1.2112837,-0.5873736,-0.8325586
0.346512,-1.3278589,0.1380133,-0.45892432,-0.18386313,-1.177136,-0.94648504,-0.13568325,0.44885904,-0.63313,0.15433082,1.7089214,-0.07724926,0.44364434,-1.3996847,-0.3772443,-0.6586583,0.8835255,-1.4146129,0.92343676,-0.9507491,0.33606935,-0.063774414,-0.5148164,-1.0401387,-0.46558982,0.7174395,-2.5637724,-0.31248617,-1.5664274,-1.2292559,0.82453185,-0.51640064,-0.44035894,0.28370947,1.0332323,0.12547664,0.07842394,-1.8647778,1.0786005,-2.0095785,-0.7500888,-0.86148715,-1.528494,0.4712674,-1.4707775,1.0047576,1.3942748,-1.3161685,-0.9571957,0.3984406,-0.01954623,1.7367339,1.1318918,0.9442174,-0.7585041,0.49299663,-0.12207795,-1.2326343,-1.2662164,0.63269997,-1.6857417,-1.1838443,-2.9068105,-0.9518274,0.7563036,1.4694903,0.24833268,-0.5821285,1.0178703,-1.8334761,-0.7169866,-0.6524633,-1.408173,0.3786492,-0.57845783,-0.2972862,-2.0099065,-0.59018916,0.021820769,1.0584433,0.46851972,-0.64259696,0.070190534,-0.9389793,1.3412187,-0.12056784,-1.1885662,-1.7466846,-1.6700124,-1.1261564,0.06448479,0.24162316,0.77904844,0.11795654,1.4704484,-3.423449,-0.26150396,-1.6390915,-1.6660967
-0.44868505,1.6528113,-1.1376015,0.06911612,-2.2918413,-1.1310269,0.34603095,-1.3152616,-1.1799824,-0.087210186,0.90546674,1.3069366,0.52730966,-0.7067416,1.774849,0.13604169,-0.7426085,-0.98783183,-0.5648017,-0.5779185,0.32664448,0.28713253,-2.0388174,-1.3903468,0.6234019,-0.48703408,1.1874119,-2.2717054,-1.0815413,-0.19383004,-0.89872146,-0.9836775,0.344427,-0.45573503,-2.1027849,0.33398283,-0.7852289,0.35645482,0.27323118,-0.6041257,-0.22634242,-0.5687935,-0.41758803,1.0667665,-0.55917555,0.091440074,-1.1994897,-0.3124018,0.86746216,-0.8918701,-1.7463487,0.7734176,-0.8194309,0.32897055,-0.33430737,0.3080856,-0.46999457,-0.17477408,0.11373507,-1.875832,0.9344661,0.29743937,-0.23365356,-0.0052500777,-2.0670488,1.4363314,-0.6306964,-1.8284764,0.043825988,-0.72326773,-0.017841266,-0.7925455,-0.8523382,0.5215985,-0.43219712,-0.7403209,-0.78051066,0.11120323,0.42614034,-0.3288408,-1.0432762,0.5197488,-0.96334445,0.26623142,1.1377687,1.7847924,0.14921074,-1.0440143,-0.40376914,-0.4618624,-1.337546,-1.025307,-1.0039985,-0.9465695,0.16093008,-1.320413,-0.85468787,-3.2790277,-0.77139324,-1.5971231
2.3041475,0.058880575,-1.2760805,-0.9677217,-0.4670029,0.3423619,0.1136208,-1.0768309,-0.8179812,0.2557374,0.7590931,0.53561217,0.8577973,0.585116,-0.9882533,-0.506873,-1.6856545,-0.74020785,0.07253032,0.55735034,-0.40957746,1.011615,-1.4025769,-1.1880554,0.048858516,-0.2265947,-0.914111,0.17606956,-1.0498883,-1.9306024,0.65019816,0.61946416,-2.1949453,-2.158774,-1.520076,-0.16847047,0.19267242,-1.5293893,-0.238019,0.82311636,1.2216789,0.4794044,-0.36317366,-1.9990191,-0.917678,-0.03665058,0.9469614,-1.6587132,-0.35851672,0.14727235,0.3160138,-0.17727855,-0.83966964,-0.8223727,0.44500634,1.1934197,-1.7158266,-0.9626591,-0.08830785,1.0315728,-2.2656815,-0.59108037,-0.3376739,0.1522102,-1.5330667,0.22803049,-1.1315173,-0.8546171,-0.73224384,-0.44330534,0.3377264,0.46420667,-0.7651902,1.4529065,1.9097095,-0.36433217,-0.7128705,-0.7043583,0.63102216,0.4704135,0.9156546,-1.1774542,-1.0694522,0.57197225,-0.46598935,-0.4147282,0.41896486,0.5192034,0.078732155,1.0439641,-0.005494248,0.12825489,-0.55677646,-0.78719056,-0.8802991,0.44124848,-1.342661,1.4718281,-0.6940936,1.4183477
0.06204377,-0.23345013,2.84508,-1.2718766,-0.24350773,0.21725442,0.075464025,0.15075873,-0.91112286,-1.2104536,-0.5444724,1.2809886,0.6000951,0.54323435,0.10392624,-2.5667634,-1.4404409,-1.8721093,-1.9407613,-1.620319,0.37731785,-1.8243815,-0.7165026,-1.9386663,-0.2886029,-0.6255346,-1.6184211,1.275765,-1.4482999,-2.6208367,-1.6548675,0.92873144,1.0270735,-0.6115508,-0.71104574,-0.6147252,-0.98248494,0.06766237,-1.2460507,-1.3400394,-2.2483323,1.0970429,-0.47960734,-1.6066362,1.3469845,-0.92950356,-1.4304621,-1.7668155,1.4894096,-1.1874199,-0.81615955,0.84830016,-1.8523341,-3.199209,-0.7298239,-0.6139736,-1.7390382,0.0074982163,0.25892413,-0.95269006,-1.1861709,-0.34789667,-0.97396934,1.1550229,-1.3180228,-1.8257649,-0.7580082,0.04684367,-0.5647547,-0.84022415,-0.10356046,0.15001044,0.28629074,-0.705625,-1.3302069,0.16084231,-0.75128657,0.15004413,-1.1287887,0.5946264,0.42065692,-1.9836861,-1.7987947,-1.8297874,-0.7700641,-0.81482476,0.4686781,0.18774763,0.27874535,-1.0174377,-1.1464632,0.31020877,0.22382134,1.1693392,-1.8402699,-1.689541,-1.5470827,-0.6735444,-0.26617363,-0.34263283
0.40236855,-1.7374835,0.13475318,-0.16293575,-2.067945,-1.9685352,-1.5267054,-2.0364716,0.25024262,-0.32670823,-0.48052254,-0.87451893,0.87768364,-1.8991194,0.7440192,-1.0970985,-1.9196094,-0.5816774,-0.46382847,-0.115220144,-0.69365716,-0.4374335,-0.89566606,-0.488669,-2.5645814,-1.0401212,-0.32413283,-0.926704,0.19281684,-1.0779492,-0.34613907,-0.97665006,1.3846631,-2.4721172,-0.09388341,0.5777963,2.5539684,-0.5216246,0.5723936,0.20590994,-0.44305736,-0.25318012,0.17456758,-0.22669339,0.48933536,1.3474746,1.3279425,0.27792943,-1.9954937,-1.2312764,-1.8272253,-1.5885584,0.7020797,-0.36484057,-1.5083587,0.29394695,-1.563562,-0.78805006,0.27871546,0.91923785,-0.396546,-0.91126484,-2.353243,-0.66338146,-0.931427,-0.90927947,-0.18968652,-0.9858262,-2.173079,-1.783507,-1.5292889,-2.030605,-1.2202097,-4.0356245,-0.5636994,0.05463302,-1.7743827,1.088614,1.3134828,0.011946872,-1.0910305,-0.54380065,1.481778,1.3704402,-1.1491925,-0.9415441,-1.6373842,-0.46754485,-0.6166411,-1.1508832,1.46896,-2.0682647,-1.0684658,0.4957445,0.18488921,0.40319383,-1.2274598,-1.079996,-1.3644754,-0.13248825
1.9511031,0.12589143,-0.41753244,-1.1275712,-0.11356951,0.20765062,-0.40663147,-1.079575,-1.4533412,-0.6014949,-2.0296848,-0.15873796,1.3403122,-0.6013303,0.45609978,-1.1494051,-0.6861676,-0.2842573,0.25002035,0.5029563,-0.920808,0.30576983,0.9711973,-0.9432754,0.21323337,-0.17000574,0.08427171,-2.0347962,0.5480087,-1.7815992,-0.34413323,-0.54260784,-0.3584595,-1.3141974,-1.6091337,0.66165197,-0.9486762,-0.6194409,-0.62204283,-1.059391,-0.8878074,-1.6840566,1.5448413,1.3160436,-0.9782078,0.27186936,1.0193726,0.31955272,-0.93000823,-0.7650226,-1.2307489,-0.43693635,-2.4745214,-1.3705355,-1.0674727,-0.071719706,-1.1418717,0.30600104,-1.387436,-0.55446744,-0.35767096,0.031897925,-0.2772591,-1.4109372,0.29556265,-1.4984,-2.1676452,-1.8144726,1.2927523,-0.5696151,-1.5228033,0.21444452,-0.25060207,-0.36492357,0.7977693,-1.2689703,-0.80140585,1.195531,-0.0377526,-0.99151826,-0.06366462,-0.5801372,-0.9896193,-0.36388984,-1.1897336,-0.37205735,-0.10149497,1.0800946,-1.320846,-1.4792056,0.51173097,-0.30646607,-0.74220383,-1.5014628,0.4283105,-0.7587456,-0.04660646,-0.10749897,0.32733223,-1.3045037
0.59724367,0.43543828,0.76303834,-0.519461,0.887329,-3.2866428,-0.28208405,-2.0785751,1.4452261,-0.6674141,-0.13985723,-1.7589192,-2.388674,1.4747355,0.07668657,1.6189464,0.14854167,-1.7625579,0.5671877,2.0753927,-1.0864782,-1.0123535,2.0264843,0.320657,-0.76447666,-1.0964326,-1.3522463,-0.7169533,-0.69171184,-0.5935121,-1.1044664,-2.024728,-0.840916,-0.6231392,0.49455997,-2.051635,-1.9722173,-0.30372578,-0.8319643,0.19375633,-0.69189996,-1.3686142,-0.6593041,0.9738132,-0.27555883,-0.9675015,-0.41474277,-1.3172193,-1.9621053,-0.12571868,0.26914632,-0.9595271,0.013581298,-0.11656787,-0.8308671,-0.5467684,-0.5177664,-0.37185332,-1.2821788,-0.6422801,-0.9306264,-1.023831,0.67812556,0.3564788,0.11159088,-1.0716732,-0.84555274,-1.6175303,-0.26945794,-0.5629529,-1.031402,-0.6555056,-0.31543258,0.48621482,-1.8135649,-1.2906287,-0.021542985,0.8495207,0.45177323,0.42324996,-0.4943022,-1.298448,-1.1949832,-1.1181953,-2.1159782,-1.0509483,0.29217455,-0.7783525,1.1547412,-0.9324821,0.96173877,-1.1207765,0.42246532,-1.869979,0.41513565,-0.2455421,0.10006419,0.07618783,0.42459092,-1.0577798
1.0856106,-0.8187103,0.06340544,0.6137968,-1.9148129,-0.43150494,-0.89552194,0.01580145,0.3228835,0.92037684,-0.62302035,-1.0637814,-1.533508,0.983997,-0.9793915,-0.9835376,0.21052985,-1.376199,-0.9632905,0.80672413,0.7205284,0.007383596,-1.1757406,0.58033705,-0.49730974,1.9323255,0.26327065,-0.31309494,-2.3981524,-0.7284633,1.1333066,-0.42239872,0.86990064,-0.7683521,0.545957,-0.86472046,2.3088813,0.2417477,1.2655588,-2.2818146,1.8429788,-1.6683159,-0.13663131,-1.7429354,0.9786279,0.31531665,-0.37800312,-0.58796805,-0.77155095,1.289646,2.0139365,-1.94288,-0.6295559,-0.3463812,1.4130974,-0.620632,-0.64232355,-1.7632251,0.7251848,0.049406637,-0.9490863,-0.686581,0.38700047,-0.5223098,-0.92141974,2.2787426,0.5038978,0.48604453,0.663757,-0.4865928,1.2904426,-1.6944335,1.0790074,-1.5440949,0.760071,-0.42236948,-1.0697509,-0.29502103,0.025120603,1.0553986,1.2961859,0.10265145,-0.620378,-1.2626886,-0.25885063,-1.6529374,-0.3084244,-0.58359927,-3.226455,-0.5211767,-0.37904772,0.14366186,1.2677164,-0.9978586,-1.0405703,0.5300288,0.7970306,-0.28865856,-1.8438122,0.12030287
0.00048335642,-1.8406352,-0.60300326,-0.03789234,-1.9306048,-0.73217,0.03933217,0.29332963,-0.4788679,-1.0881424,-0.59331334,-1.0283011,-0.8740306,0.39066598,0.6901093,0.05764372,-1.26617,2.3277147,0.5420863,0.52315485,1.1453182,-0.7685384,-0.2553481,0.12957923,-1.1917123,1.5934153,0.010474997,0.4627564,-0.19972244,-0.05531838,-0.26800042,-2.9200523,1.381503,0.32581076,-1.4139367,-1.3133934,0.32934842,0.8988148,-1.6053548,-1.03113,-1.7054582,0.24118781,-0.04705148,-1.3895613,-0.17315549,0.46883136,-1.2938149,0.9147898,0.4963212,-0.7562543,1.3628899,0.58518755,0.5116697,-1.1812775,0.27748293,-1.1808447,-0.7264185,-0.75958544,-0.77688706,-1.1284523,0.01610017,-0.30623692,-0.65920866,0.7331272,-0.8309865,-1.7747202,-0.48667288,-1.9049312,-0.37539193,-0.18786049,-1.2425382,-0.5478284,-0.8698279,0.47985685,-0.99203646,-0.70618844,-1.3946109,-0.03509324,1.5258766,1.2318761,0.24860479,-1.7843759,-1.0224937,-1.0090882,0.18202905,-1.4504873,0.5805254,-0.24186486,-1.0412133,-0.6070101,-1.336124,-0.5284726,-1.2338873,-1.1599925,0.079022296,-1.8550606,0.9779504,-1.1743406,-1.1213076,0.15596154
-2.0933504,-0.85640734,-1.71316,-0.30508643,-1.3675458,2.3859563,-0.49431393,-0.4941612,-0.9093852,0.40105727,-0.7653358,0.98327154,-0.4222282,0.15049541,-1.0489583,0.16635285,0.4401122,0.3234715,-1.4561557,-1.5813867,-2.5363624,-1.0698713,0.4028782,0.005953012,-0.5252765,-0.4173214,-0.018414875,0.53519446,-0.9935052,0.6335297,-0.9325134,-0.56403553,-0.602476,0.88457876,0.7994477,0.7150842,-2.8278043,1.1675278,-0.48311678,0.51084477,1.8989725,0.29279363,0.5673661,1.6851084,0.10677685,-0.64825225,0.874496,-0.95590115,0.20336595,0.0031843912,-0.82798475,0.18404746,1.533878,-0.90668154,-1.2882345,-1.3145628,0.36508453,-0.6107417,-1.0744315,0.90006566,-0.25842306,-0.20201556,-0.85646266,-0.9277265,1.0126252,0.35629508,0.9156076,-1.1849583,0.09273199,-0.6289785,-1.0793566,1.228509,0.18390782,0.5036169,0.14768559,-0.21069115,-1.476795,-0.5590136,-0.59905124,-0.96157414,0.09421153,-0.0011341497,-1.7454501,-0.87057024,0.47267112,-1.8277386,0.0050949343,0.62769884,0.3076113,1.9976549,-0.75519896,-1.4187773,-0.1461282,-0.25637305,0.3174825,1.3869541,-1.0946716,1.2482675,-0.9787074,-0.4097999
0.15967926,-0.21800964,-1.287435,-0.70040035,-2.1191614,0.41002467,0.78620654,0.33758968,0.1330706,-1.5744181,1.6275103,-0.31438625,-0.35983577,2.0107687,-0.64029104,-1.4297127,-2.0010903,-0.8647103,-2.2016153,-0.7446115,-0.25155205,-0.49031618,0.54110354,1.3046734,-0.2726553,1.2067819,0.49563655,0.61920345,-1.8222729,-0.2633028,-0.23225868,-0.6824212,-3.0106997,-0.6224602,0.7884228,0.87604606,0.46932012,-0.7296852,-0.93546635,-1.0124438,-1.1245209,-0.16485904,0.59812796,-0.60695595,-0.05794765,0.9422373,-0.7917752,0.26309097,-0.59861696,1.0822222,-2.0062041,0.01909359,0.80267537,0.16604458,-0.33496344,-0.171854,-0.44964972,-1.5010084,-1.1189655,0.061227,-2.643426,-0.61284673,0.34621906,0.23826349,-0.3902356,-0.30429146,0.2405572,-0.8722102,1.021083,-0.35684675,-1.569962,-1.4357184,-1.2851825,0.8554848,0.05931356,1.3051857,0.17390415,0.10374978,-1.0680195,-1.6905191,0.026551625,-0.64101064,-0.8101774,-0.07449229,0.7073043,2.1522403,-0.07034225,0.6118887,0.18279909,1.6810712,0.13507487,0.15089953,0.41815168,0.19936912,0.5820303,0.32262364,-0.47091275,0.12123697,0.12967455,-0.8349281
-0.5587651,-1.1848009,-0.9003854,0.2776449,-2.084727,0.94660425,-0.5135535,-1.2061657,-1.7837218,-0.880775,-0.3396901,-1.7361021,-0.6294418,0.5167591,-0.8414208,-0.5861395,-0.011035716,-0.33642212,0.8126268,0.26690423,1.1222019,-1.3935306,-1.3017249,-0.35525903,1.7959902,-1.1476847,0.08566289,0.39755636,0.5066658,-0.92484075,0.3613917,1.1321303,-1.2837945,-2.6833675,-0.87441033,-0.15137085,-1.6596432,-1.0259085,0.24362366,0.5465775,-1.352701,-1.4966152,-0.8308698,-0.36389,-1.899691,-0.21326526,0.9195009,-1.1279896,-0.63044065,1.1917281,-0.4397993,0.38727802,-1.1025903,-2.7543733,-0.21307698,0.15962477,1.4469304,0.69645524,-0.51811314,0.752572,-0.50606775,-0.32378227,-0.21760836,-1.9367514,-1.3381305,-0.6300423,-1.34531,-1.2396877,-0.40858382,-0.5284897,-0.9520738,-0.82324183,0.38452,-1.653492,0.35319525,0.56168836,-0.81737876,-0.71903497,0.19756784,0.25428563,-1.7569869,-1.2663875,-0.7892716,0.34109864,-2.1334038,-0.23927024,-1.3509973,0.08531692,-1.8673855,-0.9958024,-0.22567254,-0.696168,-0.5343457,-0.40562814,-1.7713932,-0.624398,-0.1302266,-1.0559931,-0.1683422,0.54006344
-0.39662647,-0.9052155,-0.9410538,-1.5310025,-0.88376206,0.3627958,-1.6734031,0.25079986,-1.0107682,0.67590845,-0.912616,-1.7079313,-0.31982315,-0.21813789,-0.8889158,-1.505452,-2.3681464,-0.88689405,0.10229735,-1.1706723,-1.0499839,0.114992134,-0.21451545,-0.43198723,0.98860204,-1.3323572,0.45521128,0.23892651,-1.01521,-0.7084018,0.86143416,-0.64371336,-1.9682869,-0.86687183,0.083319135,-0.76972127,0.49841297,0.22263008,-1.1479129,-0.8578865,-1.0348929,0.6821269,-0.8645957,1.2485404,-2.4548173,1.7800804,-0.48423797,0.3190433,-2.2644036,-1.3462914,1.5968411,0.2944826,-0.9829504,0.37412906,-0.96287477,0.20094588,0.26932332,-0.864993,-1.2026511,-0.792204,-1.5000266,-0.5597835,-0.9379098,-1.6537962,-1.8112229,0.22577435,0.36252084,1.7301345,-0.18339543,-0.24837388,1.2898904,-1.0402776,-0.4432482,-1.5129149,-0.98274153,0.38100716,0.10980245,-1.1431642,-0.9600532,-1.1731699,1.0730504,0.2671411,0.047263388,-1.0803738,-0.8449396,-1.3632721,1.2655504,-1.0511391,-1.4427378,0.50791645,0.44547513,0.39390934,-0.036505766,-0.69430244,-1.4807929,-2.6464248,0.0016335389,-1.3850142,-0.7219076,0.11547249
-0.18444848,-0.8777793,0.3425737,-0.52236813,0.29131025,-0.034574073,0.14939377,1.5017414,-2.2542684,-0.81952137,-0.47359055,1.1072121,1.4963073,-0.42102686,1.0153294,0.49545696,-2.338806,-1.4393098,-1.4099952,-0.8122046,-0.95367277,0.07477211,-0.6213447,-1.3802752,0.4963758,-0.2846841,0.23239465,-0.9796725,-1.4513736,-0.665529,-1.8763274,0.11377463,-0.16075926,-0.7367295,0.85517156,1.0756861,-1.4081761,-0.22092256,-1.1970925,-0.6654645,-0.9739988,-0.26228768,-0.522821,0.16191304,-2.0448267,-2.196895,-0.63268363,1.5109571,0.22077279,-1.405764,1.8390852,0.40250143,-0.20576338,1.0365676,-0.32935652,-0.5864658,-0.31440443,0.40208244,1.4290763,-0.39157784,-0.9863344,-0.10847905,-0.65061104,-0.8157852,-0.48788413,0.2319099,-2.3050764,0.41228163,-1.1031021,-1.1605741,-1.0755476,-1.0983965,-0.9598177,-0.29597026,-1.8419183,-1.4813886,1.6261907,-0.4417075,-1.3591776,-0.29215994,-2.3971455,-1.8153722,-0.3764128,-1.9005773,-0.21806085,-1.0516329,-1.6968524,-0.705306,0.41559157,0.10435462,-0.12827532,1.0189058,-1.2428279,0.1026529,-0.77555895,-0.6713682,-0.15046966,2.827546,-1.3919842,-2.1616714
-0.19547047,-0.5164949,-0.056307353,-0.06932995,-0.3496047,-1.9644241,-0.07054257,-1.0676253,-0.32010692,0.9614724,2.4708452,-0.6469646,-0.2841811,0.46496335,0.012776515,-0.6617136,1.4781867,-0.7823401,-0.6763009,-1.2449023,0.13303731,0.21211484,-0.36819324,-0.72859246,0.028726626,0.23854539,0.4946199,-0.73545927,-0.39115247,-0.20408227,0.190175,-1.686496,-1.4250587,0.0005398467,0.3736023,-0.5325534,0.40824473,-1.3930192,-1.6788971,0.14914523,-2.0736797,-0.0023171222,0.770703,0.6813107,-2.2016733,-0.51418996,0.864038,-0.87047666,0.6805356,-1.5843784,-1.163255,-1.0081707,-0.48112655,-0.6457758,0.18040892,0.46345907,-1.2295156,0.5814844,-1.3578311,0.15461698,0.37477297,0.13834427,-0.933067,-2.3092744,-0.43019214,-0.7651092,0.870574,-0.3731977,-0.7718635,-0.22118813,1.320652,-0.28714645,-0.14533384,-0.89404863,-0.795029,0.7538833,-0.52938664,0.102246985,0.80269146,1.057352,-1.0872515,1.5997809,-1.5545442,-0.3622391,-0.18830344,0.55873954,-0.31724295,-0.45810017,-0.42079237,-2.6965458,-0.23906192,0.70218134,-0.61461294,0.24476969,-1.6877111,0.45625946,-0.437667,-0.9585899,0.25565585,1.8776925
0.74199843,0.20259403,-0.9786483,-0.24528043,-0.38804355,-1.8897694,-1.9965279,-1.1036979,1.2804346,0.22223529,-1.1955526,-0.0055016335,-1.2596912,0.68854713,1.302358,0.2417473,0.8202037,-0.8305986,1.0633612,-0.31641847,-1.2723005,-1.0890741,0.032594472,0.58307326,1.5339354,-0.76673526,-0.807667,-0.2963292,-2.172605,0.25621697,0.25091,-0.94015193,-2.1999516,-0.5071642,-1.6555464,0.38187236,-0.80289906,-0.29783225,0.39780742,-0.02284724,2.1387525,-2.1842697,1.0365529,-1.2188653,0.5797707,-0.9631498,0.6215356,-0.32975325,0.29857892,-0.339008,-0.051482953,0.16393796,0.26027006,-1.1510878,-2.0262277,1.1756345,-1.3940386,1.4102136,-0.94997436,2.1132166,-0.6300226,-1.1597011,0.54739517,-0.13355707,-0.874838,-0.9918361,-0.9959406,-1.9194256,-1.1566838,1.0047429,-1.1889734,-0.6599876,0.5645898,-0.03176383,-0.0352533,1.2440737,-1.0342232,0.19118753,-0.45028228,-0.7507736,0.26843303,0.7899315,-2.1819174,0.017645862,-2.013072,0.15397471,-0.47247553,-2.235425,0.63499737,-1.1357135,-1.0866833,1.4071196,-0.36415616,0.73904306,-1.002477,-1.3694668,-2.6287377,1.5451574,-1.4290024,-0.77313054
-0.14122903,-1.9066848,0.8391494,-0.12561056,-0.6371179,1.1781883,-0.06364454,1.3527814,-2.0477324,-0.21340734,0.11580497,-1.9537779,0.15633804,-2.3476892,0.30361408,-1.216122,-0.644954,-1.1103188,-1.0247843,-1.8446169,-0.3158301,-1.3059015,-0.24356627,-0.6784973,0.17093179,-0.29848278,-0.4770552,-1.071534,-0.1405631,1.4328017,-2.7137277,-2.131333,-0.6032276,-0.81092554,0.7461025,0.936549,0.124471925,-0.19402274,-0.46836156,-0.27372622,-0.27360877,-0.8310426,-1.626905,0.51604825,0.77903557,-0.5509091,-1.1836332,-0.473793,-0.8444173,0.47167474,-0.28281027,-2.6388876,-0.23785928,-0.3612085,-0.56495714,0.4001761,0.08021326,0.6110999,-1.1353878,-0.6680792,-2.411195,-1.7381028,0.3390817,-1.8951988,0.13372555,-1.5646129,-1.0071259,-1.0428168,-0.1087427,0.19506226,-0.98927927,-1.5037134,-0.66809326,-1.0602033,0.7486967,0.4099933,-1.8991864,0.7446599,-1.2218482,-1.0315217,1.3804913,-0.5508042,1.2372439,1.5474766,0.4390503,-0.8408082,-1.0037876,-0.21483718,0.43119323,0.71281916,-1.7287706,-0.7377743,0.13900478,-2.0461137,-2.3248193,-0.6412395,1.178116,-1.2102187,1.9059936,0.23126443
2.9874725,0.78079647,0.743748,0.55608565,0.7068412,-1.4065953,0.57799906,0.49075878,0.08810863,-0.41993755,0.4409848,-1.8063649,-0.077878654,0.28443673,-1.4348024,0.09701489,0.3762224,-0.24650143,-0.4161966,0.31143218,0.87129676,-0.4346169,1.8081913,-1.2989165,0.7751909,0.06731869,-1.2635646,0.5160806,-0.25492078,1.2246834,-0.8343106,0.17514181,-1.41487,-0.26388082,1.7045513,-1.3807546,-0.7484893,-0.502764,-0.6162827,-0.38212234,0.101665065,-1.5301737,-0.42464137,-0.051869325,-0.017717334,-0.39562058,-0.08461635,-0.6311673,1.7209679,-0.7507008,-0.41606137,-0.35937765,-0.32993132,0.7317153,0.08479107,-0.58955675,-0.47546598,-0.29113436,1.9350746,0.53249377,-0.17004675,-0.49277666,0.9510961,-0.2465461,-0.32969177,-1.4609227,-0.4262233,0.058044635,0.18796907,0.7807009,-2.339827,-0.47444072,1.9778373,-3.9211092,0.33489314,-1.834375,-2.2541397,0.9456705,0.86970186,-0.6759963,-0.11106957,-1.2896562,-0.80067277,-0.44475403,0.040099233,-0.24204153,-0.99064523,-0.15718593,0.07442023,-0.6294732,0.6100093,-1.3631455,-1.057975,-2.868909,-1.1588659,-1.3992125,-0.4991717,-2.3348496,1.2264503,0.32204193
0.7165203,-0.0891264,-0.13902716,0.38262713,1.2488083,-0.8370575,0.4560172,-0.9132422,0.7023068,1.1496342,0.34882778,-1.8320926,-0.7114431,-0.90883714,-0.62228554,-2.0593426,0.8918747,-0.5992318,0.31734693,-1.7975183,0.1369402,-0.25119284,0.39776266,1.974963,-0.809532,-0.52196354,-1.0781235,-0.5717253,1.0875584,0.63726836,0.41912135,1.2431977,-0.7651161,-1.3769747,-1.16909,-1.8786626,-0.9120766,-0.8340828,0.04619527,-0.30981296,-1.4825494,-1.6081461,-0.76131696,-1.508987,-2.292809,0.20813663,0.9690746,0.16164033,-0.9557526,-1.9559689,0.9297105,0.48190838,-1.759147,0.2712265,0.8057919,-1.1783781,1.0557657,-1.7398199,-0.002317613,-0.1460051,-0.84141606,-0.89841825,0.6889728,0.14252529,-0.3847398,-1.4550028,1.0360221,0.14203352,0.19574228,-0.28586093,0.62075937,0.31041607,-0.80517447,1.2135012,-1.9027299,-1.5183747,2.0314193,-0.90340257,-0.3209709,-1.0052532,-1.2759085,0.24573198,1.0075517,1.100064,-1.0875949,0.5461949,-0.9548333,0.14816546,-0.25160322,-1.1388267,-2.1076035,-0.6548029,0.15145811,-1.1968158,-0.513468,-1.2216678,-0.12298318,-0.44457647,2.1390553,-0.35200524
-0.7633877,0.19363666,-1.0534476,-0.5612994,0.59928745,-0.47627655,-0.79235464,0.46302575,1.8767724,0.42395994,-0.6751005,-0.12795185,-0.33465892,-2.9101412,-0.9527589,-1.1910392,-0.55164325,-0.788822,-2.2612755,-1.7952449,0.3280925,-2.8768327,-0.4882269,-1.753914,-0.2809103,-0.1997977,-1.1122109,-1.5616293,-0.6975839,-0.074985825,-1.0047346,0.66251,1.5547693,-0.07533136,-0.9113334,-1.3012636,-1.1325026,0.7715456,0.5490128,-0.508364,0.5258171,-0.0384468,1.2757089,-2.036683,-1.5096579,-0.6357822,-0.611248,0.5312217,-1.6964185,0.15879002,-0.43976307,-1.6245078,-0.37625304,1.2073479,-2.1804264,-4.019706,0.1991065,0.624231,-1.3905928,-0.98368424,0.4701967,0.0079505,-0.032981984,-1.2234546,-0.44021812,-0.82673436,0.6946393,0.57675517,0.3298213,-2.7229156,1.4200568,0.060448453,-0.50589055,0.046629954,-1.1648585,0.49675664,-0.14022946,-1.5052289,-0.9057667,0.45899808,0.5094917,0.5789867,1.0256634,-0.30509883,-0.77283114,-1.6196505,0.70916194,0.26849753,0.43813315,-1.072015,-1.278312,-1.781203,-0.9953453,0.97365636,-1.2523037,-0.17071126,0.2709539,0.63353777,1.1373143,-0.11209389
0.7680594,-0.7797492,0.71241766,-0.10660059,-0.281558,-1.4320779,-1.3990405,-0.4590606,0.17255744,-1.274735,-0.7283083,0.9808563,-0.12512256,-1.3155471,0.2755012,0.16074139,-0.4165602,-0.64305544,-2.058669,0.9818286,-2.2244468,1.311804,-0.81693405,-0.10051047,-0.7072093,-0.7302753,-0.3348311,0.2978729,0.47082052,0.9487212,-0.45992142,-0.85320574,-2.17791,-1.3949958,1.0437344,-0.62445444,-2.8403323,1.0433435,0.08776774,0.23057446,0.44289443,0.50366086,-0.29930988,-0.24922167,-0.66089463,-2.7558637,-1.2491946,-1.5465355,-0.57154673,-0.75068945,0.63089293,-3.457745,-2.0459476,-2.050949,-0.13616645,0.6424374,-1.626366,-1.0247478,0.02362484,0.8405346,-1.2805004,-0.62877977,-1.5611964,-0.6406405,-1.3224047,-0.07529566,1.1314225,-0.70320934,-1.3687766,-1.4221323,-1.4193051,-2.337068,-0.4688293,-1.1943703,-1.2709305,-1.0489179,-1.1326478,-0.20092793,-1.5144825,-0.028334806,0.49397528,0.51858103,-0.41833133,0.06621953,-0.07551927,1.6670843,0.3339155,-0.6718672,0.6872314,-0.44866976,-0.76878095,-0.568303,1.287959,-0.5179902,-0.31250745,0.018707689,-0.38309547,-1.0683767,-2.440999,1.7771301
0.575116,-1.6779242,0.30114925,-0.76144195,-1.5438077,0.5210074,-0.23011632,-0.52068305,-1.6541371,-0.047225222,-0.66878396,-1.7597572,0.35454407,-0.82491976,-0.5810888,0.090217926,0.98031384,0.14572483,-0.63275075,-1.9055027,-0.7489442,2.0137691,0.29540956,1.6286457,-1.1161805,-0.06857954,-1.1386217,-0.35238838,0.010434069,-0.29086888,-1.6367863,-1.2673668,-2.2140958,-0.6639974,0.5357931,0.09680333,-1.5658184,0.20608178,0.100923,-1.3698903,0.190897,0.74617165,-0.6460037,-0.36534894,0.62629175,0.18370762,-1.7633525,1.9241858,-1.3361611,-1.9505078,2.3915367,-1.0970411,-0.9961346,-1.6139498,-0.07667745,-0.2190571,0.044183757,-0.23562278,-0.61507994,1.5553415,0.82132494,0.8864297,-0.0056683067,-0.6487476,1.2819585,-0.5362186,-0.85977364,-1.189561,0.7501832,0.32053652,-1.3118582,0.34142852,0.22935277,-0.8191777,0.44811454,0.9866956,0.6068851,0.34493035,-0.33095056,0.01647528,-1.5192846,0.36938748,0.084492244,-0.19719526,-0.41528115,-2.2945898,0.12595595,0.30482927,1.5283282,-1.6217898,-0.74080753,-0.15070038,1.0764334,-1.4858781,1.4326471,-1.0633514,-0.14816381,-0.11290349,1.3165921,-1.1637976
0.022367269,-0.121159084,0.35334185,-0.004132949,1.5384216,0.88283706,0.91275525,-0.010996822,-1.9639411,-0.44525868,1.2306601,1.2505685,0.0019338876,-2.049248,-1.615176,0.96224755,1.631476,-0.56651896,-1.0306888,-1.2768229,-1.0912544,1.4031563,-1.540795,-2.0757132,2.3224406,0.043985605,-0.71682465,-0.54036987,0.28293493,-1.729806,0.450991,0.41083372,-0.54021037,0.010661395,-0.6213326,-0.35284618,-0.31342244,-0.44216964,0.43025988,0.02822,-0.8145255,-0.5053593,-0.41077724,0.72614545,-1.3625531,-0.99165493,-0.39452243,-1.2992604,2.2503357,0.036990494,-2.0197039,-1.8218031,0.6467502,-0.99900657,-2.8486543,0.257302,-0.96995264,0.8282981,0.096129656,-0.9106883,-1.1774663,-0.27998853,-0.92013013,1.083577,-1.776843,2.9175746,-2.4210935,-0.8334796,-0.5214859,0.26185116,-0.8347852,-2.131841,-0.075106114,0.36304718,-1.381881,-1.5363204,-1.0191647,-1.0482924,2.859128,-2.8727102,-0.5254557,0.41382387,-1.6148292,-0.21140647,-0.8240112,0.20906775,-0.7923848,0.60367763,-1.5127053,-0.39151925,0.5997433,-0.6465162,0.6250836,-1.222269,-0.15622409,-1.7935879,-2.7066462,-1.2693552,0.9205229,-0.069279335